tree
version=v4
num_class=3
num_tree_per_iteration=3
label_index=0
max_feature_idx=38
objective=multiclass num_class:3
feature_names=open high low close volume quote_asset_volume trades taker_base taker_quote ignore return log_return high_low_range close_open_range rolling_volatility rolling_mean_5 rolling_mean_15 rolling_mean_30 rolling_std_15 rsi macd macd_signal macd_diff bb_high bb_low bb_percent log_volume log_trades log_taker_base log_taker_quote log_quote_asset_volume lag_return_1 lag_volume_1 lag_return_3 lag_volume_3 lag_return_5 lag_volume_5 lag_return_15 lag_volume_15
feature_infos=[98344.75:124447.72] [98411.220000000001:124474] [98200:124284] [98344.75:124447.73] [0.0048599999999999997:1175.579696] [526.2172243:141488271.91835129] [6:73211] [0.0031800000000000001:904.28108599999996] [345.0149586:108770837.64326251] none [-0.012423791708605414:0.010088195353134655] [-0.01250161223122831:0.010037649172629153] [8.1030566145666949e-08:0.017179155330358069] [-0.012423791708605424:0.010088104482448471] [0:0.0038284432220299742] [0:124301.18799999999] [0:124058.99733333333] [0:123961.11866666666] [0:1177.213052615117] [0:99.125103680077117] [-614.82997474826698:697.32885791697481] [-491.31908886825829:633.48168165553216] [-322.00725176676673:250.8490111156764] [0:124432.20963288768] [0:123664.36673064029] [-0.58971559758467684:1.58953195968793] [0.0048482283248207012:7.0703669457796758] [1.9459101490553132:11.201114620939853] [0.0031749544936437077:6.8082454877413268] [5.8464820070711845:18.504753829284518] [6.2676126539368484:18.767727394710974] [-0.01250161223122831:0.0097931951146062301] [0:7.0703669457796758] [-0.01250161223122831:0.010037649172629153] [0:7.0703669457796758] [-0.01250161223122831:0.010037649172629153] [0:7.0703669457796758] [-0.01250161223122831:0.010037649172629153] [0:7.0703669457796758]
tree_sizes=3395 3404 3434

Tree=0
num_leaves=31
num_cat=0
split_feature=14 6 14 14 13 6 6 14 6 13 14 13 25 5 32 10 7 38 2 14 35 38 34 25 14 19 14 4 5 18
split_gain=1375.87 405.118 180.381 82.9655 68.0988 66.897 49.3872 37.4413 36.8141 30.0534 26.8184 17.7231 17.4467 17.2248 14.5299 13.8384 13.1405 12.9474 12.3523 11.0894 11.0753 10.6779 10.4382 10.0972 9.33382 9.54803 8.58051 8.82395 9.015 10.7833
threshold=0.00024764764091035743 1428.5000000000002 0.00014805311984583515 0.00038268153067258135 -4.8377561583567483e-06 712.50000000000011 888.50000000000011 0.00037462266218626043 3014.5000000000005 -9.5881822988035942e-08 0.00011711155587874813 -5.4562797313763491e-05 -0.016201509915827989 320942.51236100006 1.7067497239982925 -1.657599602999937e-05 4.8134650000000017 1.8788931304047101 118891.11500000002 0.00020578794086861175 0.00048596212572518525 0.54223707756794803 2.3234151334536652 0.073979755151222709 0.00036715575542204851 55.339653258625709 0.00054855350825422106 13.962565000000001 1179368.8213897503 84.753537269402983
decision_type=2 2 2 2 2 2 2 2 2 2 2 2 2 2 2 2 2 2 2 2 2 2 2 2 2 2 2 2 2 2
left_child=2 5 10 16 14 9 19 11 22 18 -1 -7 17 -11 -4 -12 -3 -10 -2 -6 -15 -16 -5 -24 -22 -26 -9 28 29 -28
right_child=1 3 4 8 6 7 -8 26 12 13 15 -13 -14 20 21 -17 -18 -19 -20 -21 24 -23 23 -25 25 -27 27 -29 -30 -31
leaf_value=-1.1339707538313544 -1.1012735077493818 -1.0970105143950688 -1.1083683862290854 -1.0913537889379425 -1.1212645263790415 -1.0972171715779255 -1.1071644171412172 -1.0952126203430683 -1.1057551458109669 -1.1113550295595469 -1.1145085150832041 -1.1034495742382409 -1.0835670274618714 -1.1048462218300634 -1.1222964991944255 -1.126401718198311 -1.0916179597456146 -1.0884658451534654 -1.0863045963604174 -1.1153538882895011 -1.1017372886681098 -1.1000923996764354 -1.0963742974017343 -1.0869025452690766 -1.0397887592563451 -1.0900185386681098 -1.0833288878583931 -1.1074034974593185 -1.0697463092866666 -1.0968177342126642
leaf_weight=990.3333628475666 1509.3333783149719 2705.3334139585495 1872.333389133215 3706.0001104474068 1817.3333874940872 2007.000059813261 1307.6667056381702 3015.000089854002 140.00000417232513 1802.3333870470524 353.33334386348724 2642.6667454242706 6112.6668488383293 1037.3333642482758 57.000001698732376 794.66669034957886 1939.666724473238 478.0000142455101 151.66667118668556 1408.6667086482048 42.666667938232422 1081.0000322163105 305.33334243297577 3585.3334401845932 17.000000506639481 21.333333969116211 329.33334314823151 60.666668474674225 64.666668593883514 269.33334136009216
leaf_count=2971 4528 8116 5617 11118 5452 6021 3923 9045 420 5407 1060 7928 18338 3112 171 2384 5819 1434 455 4226 128 3243 916 10756 51 64 988 182 194 808
internal_value=-1.09861 -1.09361 -1.11512 -1.08895 -1.11149 -1.10042 -1.11536 -1.09776 -1.08707 -1.10528 -1.12794 -1.10076 -1.08438 -1.10833 -1.10566 -1.12274 -1.09476 -1.09238 -1.09991 -1.11868 -1.10346 -1.1012 -1.08945 -1.08765 -1.08565 -1.06774 -1.09404 -1.08915 -1.08748 -1.0894
internal_weight=41625 31942.7 9682.33 18972.3 7544 12970.3 4533.67 8388.67 14327.3 4581.67 2138.33 4649.67 6730.67 2920.67 3010.33 1148 4645 618 1661 3226 1118.33 1138 7596.67 3890.67 81 38.3333 3739 724 663.333 598.667
internal_count=124875 95828 29047 56917 22632 38911 13601 25166 42982 13745 6415 13949 20192 8762 9031 3444 13935 1854 4983 9678 3355 3414 22790 11672 243 115 11217 2172 1990 1796
is_linear=0
shrinkage=1


Tree=1
num_leaves=31
num_cat=0
split_feature=14 6 14 6 6 14 6 14 6 14 12 14 14 14 12 14 14 5 1 34 12 32 14 14 12 17 23 36 34 32
split_gain=5712.23 1073.95 1026.91 313.017 262.602 231.012 189.02 113.426 101.365 77.3197 70.8202 60.869 58.549 42.2403 33.0415 30.5322 29.8156 28.5657 25.6322 22.054 20.142 19.5693 19.4438 17.9678 16.1294 16.2206 15.3004 15.1683 14.7549 14.5261
threshold=0.00028686234385789233 1908.5000000000002 0.00018174025481241133 819.50000000000011 879.50000000000011 0.00011711155587874813 3886.5000000000005 0.00038074813426202953 909.50000000000011 0.00042938989849593555 0.00047223863826108861 0.00045081528373253218 0.00022433358289960714 0.00023560104737677213 0.00024425691900386036 0.00063892022389410331 0.00052249906310040234 104353.66081915003 108212.94500000002 1.0176914176397884 0.00044740821022950085 1.8566573007619842 0.00034070128908241345 0.00063256625673385454 0.00020502276474938753 118777.352 109893.81723558954 1.2431829404960439 1.3763639674332937 2.5003566808767768
decision_type=2 2 2 2 2 2 2 2 2 2 2 2 2 2 2 2 2 2 2 2 2 2 2 2 2 2 2 2 2 2
left_child=2 4 5 12 11 18 9 22 17 28 13 14 27 -5 19 -8 -9 -7 -1 -2 -10 -14 -6 -11 -15 -26 -24 -4 -3 -19
right_child=1 6 3 10 7 8 15 16 20 23 -12 -13 21 24 -16 -17 -18 29 -20 -21 -22 -23 26 -25 25 -27 -28 -29 -30 -31
leaf_value=-1.0238686297366473 -1.0760615384474566 -1.1017527845358783 -1.0607905445267345 -1.0806033898916916 -1.0972028251271921 -1.0435255834657977 -1.12465244785769 -1.1086601772183928 -1.072002846608024 -1.1184685637985743 -1.1019740466215371 -1.1045018093829757 -1.0742304205362416 -1.0834312301722882 -1.0998642448496434 -1.1329144098447181 -1.1164053671243519 -1.0550901349945259 -1.0404727537843887 -1.0889341003486819 -1.0973395613953825 -1.083494568717676 -1.0988632010768689 -1.1241248171419138 -1.0924146517185931 -1.1108230855832768 -1.1085196300793714 -1.06943652447597 -1.1120475735197768 -1.0729924539573661
leaf_weight=617.66668507456779 377.66667792201042 403.33334535360336 867.66669252514839 1498.3333779871464 2317.6667357385159 576.66668385267258 1842.6667215824127 3828.3334474265575 543.66668286919594 3896.3334494531155 1016.333363622427 820.66669112443924 1941.3333911895752 478.66668093204498 639.00001904368401 2844.3334181010723 1839.6667214930058 1783.0000531375408 372.66667777299881 2796.6667500138283 91.666669398546219 807.00002405047417 730.66668844223022 2195.0000654160976 1551.6667129099369 129.66667053103447 935.33336120843887 1221.3333697319031 2539.333409011364 121.00000360608101
leaf_count=1853 1133 1210 2603 4495 6953 1730 5528 11485 1631 11689 3049 2462 5824 1436 1917 8533 5519 5349 1118 8390 275 2421 2192 6585 4655 389 2806 3664 7618 363
internal_value=-1.09861 -1.11153 -1.07205 -1.08107 -1.10193 -1.05115 -1.12152 -1.10663 -1.05784 -1.11729 -1.0903 -1.09215 -1.07215 -1.08705 -1.08949 -1.12967 -1.11117 -1.05328 -1.03012 -1.0874 -1.07566 -1.07695 -1.10016 -1.12051 -1.09153 -1.09383 -1.10428 -1.06585 -1.11064 -1.05623
internal_weight=41625 28006.7 13618.3 9512 14285.7 4106.33 13721 9651.67 3116 9034 4674.67 4634 4837.33 3658.33 3813.33 4687 5668 2480.67 990.333 3174.33 635.333 2748.33 3983.67 6091.33 2160 1681.33 1666 2089 2942.67 1904
internal_count=124875 84020 40855 28536 42857 12319 41163 28955 9348 27102 14024 13902 14512 10975 11440 14061 17004 7442 2971 9523 1906 8245 11951 18274 6480 5044 4998 6267 8828 5712
is_linear=0
shrinkage=1


Tree=2
num_leaves=31
num_cat=0
split_feature=14 12 14 6 12 7 10 14 14 14 10 12 6 12 12 10 12 37 31 14 34 32 25 13 7 12 25 5 18 18
split_gain=1504.86 289.1 237.762 126.398 87.9965 78.2605 46.3512 43.6054 33.5677 31.024 27.5926 23.6558 23.5443 21.2922 19.7207 18.7902 13.7742 13.7581 13.2567 11.7802 11.4668 11.4462 11.2214 11.067 10.6709 11.1728 10.4685 9.64554 9.00088 8.52739
threshold=0.00028686234385789233 0.00028632686737165605 0.0001870187764773593 3489.5000000000005 0.00024137290426009343 1.3976700000000004 9.4922730231594712e-08 0.00049723544104427072 0.00045631224863522228 0.00011711155587874813 9.3010576129870528e-08 0.00016488501193219081 6504.5000000000009 0.0005219032420482251 0.00045539826040231612 -0.00037463814327726158 5.0606772851294941e-05 0.00070139392741383954 -0.00033409333131259085 0.00025730565658913776 1.1684678981835004 1.1558350522782705 0.81479631385981544 -0.0010951438730241075 0.24691000000000005 0.00028033526186982844 0.40262489169825083 1779298.8318229502 99.273478383547697 51.315478633433528
decision_type=2 2 2 2 2 2 2 2 2 2 2 2 2 2 2 2 2 2 2 2 2 2 2 2 2 2 2 2 2 2
left_child=2 8 5 7 6 9 27 18 10 -1 11 -2 22 17 16 23 -7 20 -3 -8 -6 -22 -5 -9 -11 -26 -14 -4 -17 -29
right_child=1 3 4 12 13 14 19 15 -10 24 -12 -13 26 -15 -16 28 -18 -19 -20 -21 21 -23 -24 -25 25 -27 -28 29 -30 -31
leaf_value=-1.1352111387344521 -1.1092050116728047 -1.0894552833625488 -1.1157088663059691 -1.0830844339435792 -1.1094384994943207 -1.1235546849814739 -1.1083522622247426 -1.065082876903404 -1.0941194232612452 -1.1284860614591337 -1.098310675963444 -1.1006448973637619 -1.0731604814391942 -1.0941638900915973 -1.089821079876901 -1.0913446906025537 -1.111294106849928 -1.0591892117450328 -1.0943532533328955 -1.1002554811563727 -1.1097931931907228 -1.1004361077452574 -1.0892232655407366 -1.0837507928232344 -1.1223531199639534 -1.106676804797142 -1.0814732873185822 -1.1084337172395384 -1.0866166185244372 -1.066794106849928
leaf_weight=753.66668912768364 1704.0000507831573 1696.3333838880062 3282.3334311544895 3249.0000968277454 702.00002092123032 289.33334195613861 1512.6667117476463 85.000002533197403 1728.666718184948 713.00002124905586 2707.6667473614216 1533.3333790302277 774.66668975353241 749.33335566520691 91.000002712011337 2481.3334072828293 1100.0000327825546 17.333333849906921 7443.0002218186855 639.00001904368401 398.00001186132431 1827.6667211353779 965.66669544577599 1203.3333691954613 1363.3333739638329 124.00000369548798 741.00002208352089 37.333334445953369 1693.6667171418667 18.333333879709244
leaf_count=2261 5112 5089 9847 9747 2106 868 4538 255 5186 2139 8123 4600 2324 2248 273 7444 3300 52 22329 1917 1194 5483 2897 3610 4090 372 2223 112 5081 55
internal_value=-1.09861 -1.09198 -1.11225 -1.08886 -1.10766 -1.12175 -1.11167 -1.09133 -1.10025 -1.12646 -1.10204 -1.10515 -1.08257 -1.10169 -1.11237 -1.0878 -1.11385 -1.1036 -1.09344 -1.10595 -1.10387 -1.10211 -1.08449 -1.08252 -1.12346 -1.12105 -1.07722 -1.11536 -1.08943 -1.09472
internal_weight=41625 28006.7 13618.3 20333 9184 4434.33 5489.67 14602.7 7673.67 2954 5945 3237.33 5730.33 3694.33 1480.33 5463.33 1389.33 2945 9139.33 2151.67 2927.67 2225.67 4214.67 1288.33 2200.33 1487.33 1515.67 3338 4175 55.6667
internal_count=124875 84020 40855 60999 27552 13303 16469 43808 23021 8862 17835 9712 17191 11083 4441 16390 4168 8835 27418 6455 8783 6677 12644 3865 6601 4462 4547 10014 12525 167
is_linear=0
shrinkage=1


end of trees

feature_importances:
rolling_volatility=26
trades=11
high_low_range=11
quote_asset_volume=4
return=4
close_open_range=4
bb_percent=4
lag_volume_1=4
lag_volume_3=4
taker_base=3
rolling_std_15=3
lag_volume_15=2
high=1
low=1
volume=1
rolling_mean_30=1
rsi=1
bb_high=1
lag_return_1=1
lag_return_5=1
lag_volume_5=1
lag_return_15=1

parameters:
[boosting: gbdt]
[objective: multiclass]
[metric: multi_logloss]
[tree_learner: serial]
[device_type: cpu]
[data_sample_strategy: bagging]
[data: ]
[valid: ]
[num_iterations: 1]
[learning_rate: 0.05]
[num_leaves: 31]
[num_threads: 0]
[seed: 0]
[deterministic: 0]
[force_col_wise: 0]
[force_row_wise: 0]
[histogram_pool_size: -1]
[max_depth: -1]
[min_data_in_leaf: 20]
[min_sum_hessian_in_leaf: 0.001]
[bagging_fraction: 1]
[pos_bagging_fraction: 1]
[neg_bagging_fraction: 1]
[bagging_freq: 0]
[bagging_seed: 3]
[bagging_by_query: 0]
[feature_fraction: 1]
[feature_fraction_bynode: 1]
[feature_fraction_seed: 2]
[extra_trees: 0]
[extra_seed: 6]
[early_stopping_round: 0]
[early_stopping_min_delta: 0]
[first_metric_only: 0]
[max_delta_step: 0]
[lambda_l1: 0]
[lambda_l2: 0]
[linear_lambda: 0]
[min_gain_to_split: 0]
[drop_rate: 0.1]
[max_drop: 50]
[skip_drop: 0.5]
[xgboost_dart_mode: 0]
[uniform_drop: 0]
[drop_seed: 4]
[top_rate: 0.2]
[other_rate: 0.1]
[min_data_per_group: 100]
[max_cat_threshold: 32]
[cat_l2: 10]
[cat_smooth: 10]
[max_cat_to_onehot: 4]
[top_k: 20]
[monotone_constraints: ]
[monotone_constraints_method: basic]
[monotone_penalty: 0]
[feature_contri: ]
[forcedsplits_filename: ]
[refit_decay_rate: 0.9]
[cegb_tradeoff: 1]
[cegb_penalty_split: 0]
[cegb_penalty_feature_lazy: ]
[cegb_penalty_feature_coupled: ]
[path_smooth: 0]
[interaction_constraints: ]
[verbosity: 1]
[saved_feature_importance_type: 0]
[use_quantized_grad: 0]
[num_grad_quant_bins: 4]
[quant_train_renew_leaf: 0]
[stochastic_rounding: 1]
[linear_tree: 0]
[max_bin: 255]
[max_bin_by_feature: ]
[min_data_in_bin: 3]
[bin_construct_sample_cnt: 200000]
[data_random_seed: 1]
[is_enable_sparse: 1]
[enable_bundle: 1]
[use_missing: 1]
[zero_as_missing: 0]
[feature_pre_filter: 1]
[pre_partition: 0]
[two_round: 0]
[header: 0]
[label_column: ]
[weight_column: ]
[group_column: ]
[ignore_column: ]
[categorical_feature: ]
[forcedbins_filename: ]
[precise_float_parser: 0]
[parser_config_file: ]
[objective_seed: 5]
[num_class: 3]
[is_unbalance: 0]
[scale_pos_weight: 1]
[sigmoid: 1]
[boost_from_average: 1]
[reg_sqrt: 0]
[alpha: 0.9]
[fair_c: 1]
[poisson_max_delta_step: 0.7]
[tweedie_variance_power: 1.5]
[lambdarank_truncation_level: 30]
[lambdarank_norm: 1]
[label_gain: ]
[lambdarank_position_bias_regularization: 0]
[eval_at: ]
[multi_error_top_k: 1]
[auc_mu_weights: ]
[num_machines: 1]
[local_listen_port: 12400]
[time_out: 120]
[machine_list_filename: ]
[machines: ]
[gpu_platform_id: -1]
[gpu_device_id: -1]
[gpu_use_dp: 0]
[num_gpu: 1]

end of parameters

pandas_categorical:[]
